1.000000000000000048e-04 -5.787538347034783801e+05 -5.760465749232481467e+05
1.125017868369810811e-04 -5.399584957598655019e+05 -5.363730526740099303e+05
1.265665204151353231e-04 -5.027504697382528102e+05 -4.984428364051764365e+05
1.423895970044196770e-04 -4.670977722293614643e+05 -4.622170264950743876e+05
1.601908408999486275e-04 -4.329684188237880589e+05 -4.276567233218124602e+05
1.802175583616277257e-04 -4.003304251122052083e+05 -3.947230272636098671e+05
2.027479733508104082e-04 -3.691518066854010685e+05 -3.633770386987907114e+05
2.280950927954279619e-04 -3.394005791342977900e+05 -3.335798580057563377e+05
2.566110550823265716e-04 -3.110447580495520961e+05 -3.052925855627732235e+05
2.886920221888471748e-04 -2.840523590216873563e+05 -2.784763217479078448e+05
3.247836834182669485e-04 -2.583913976416455116e+05 -2.530921669395852659e+05
3.653874472005138197e-04 -2.340298895001568599e+05 -2.291012215160999040e+05
4.110674069786092737e-04 -2.109358501878337993e+05 -2.064645858555978339e+05
4.624581779553800964e-04 -1.890772952954104985e+05 -1.851433603363852890e+05
5.202737135735483647e-04 -1.684222404137553240e+05 -1.650986453368044167e+05
5.853172242133589456e-04 -1.489387011335245916e+05 -1.462915412350882252e+05
6.584923359046477350e-04 -1.305946930453853856e+05 -1.286831484094547632e+05
7.408156440773042140e-04 -1.133582317401100008e+05 -1.122345672382037301e+05
8.334308367548572648e-04 -9.719733280848342110e+04 -9.690689809963956941e+04
9.376245833996174270e-04 -8.208001184116789955e+04 -8.266124137198489916e+04
1.054844410147369503e-03 -6.797428442893552710e+04 -6.945869743353693048e+04
1.186718809765804124e-03 -5.484816616253430402e+04 -5.726036666257845354e+04
1.335079865717084041e-03 -4.266967263262737106e+04 -4.602734943732642569e+04
1.501988704632487232e-03 -3.140681943000727551e+04 -3.572074613609736844e+04
1.689764130801174212e-03 -2.102762214539703564e+04 -2.630165713715392849e+04
1.901014840481703464e-03 -1.150009636950433014e+04 -1.773118281874665990e+04
2.138675663578101793e-03 -2.792257693070999721e+03 -9.970423559155035036e+03
2.406048336173026957e-03 5.127878293163939816e+03 -2.980479736651973781e+03
2.706847370356106099e-03 1.229229599847857935e+04 3.277548270499342379e+03
3.045251658600457711e-03 1.873297983213460975e+04 8.842560084024857133e+03
3.425962529608314513e-03 2.448191420340646437e+04 1.375345532565876601e+04
3.854269062174795271e-03 2.957108352155875764e+04 1.804913361712914411e+04
4.336121564451593177e-03 3.403247219586047140e+04 2.176849458016718927e+04
4.878214239431705873e-03 3.789806463558069663e+04 2.495043783650359183e+04
5.488078185096710929e-03 4.119984524998840061e+04 2.763386300786942229e+04
6.174186021244368154e-03 4.396979844835220865e+04 2.985766971599531462e+04
6.946069596539016129e-03 4.623990863994021493e+04 3.166075758261149167e+04
7.814452411046684047e-03 4.804216023402116116e+04 3.308202622944871837e+04
8.791398593953060961e-03 4.940853763986354897e+04 3.416037527823755954e+04
9.890480506158424306e-03 5.034065830618274776e+04 3.490851339100255427e+04
1.112696729619151899e-02 5.071714106207974692e+04 3.523463415399403311e+04
1.251803702898198097e-02 5.043450745832359098e+04 3.505944959891346662e+04
1.408301533451966799e-02 4.941743802003123710e+04 3.432452220551073697e+04
1.584364389186067659e-02 4.762556696446789283e+04 3.299835495910294412e+04
1.782438247843147125e-02 4.509617248215829750e+04 3.111436246673823553e+04
2.005274878089318216e-02 4.190430272682777286e+04 2.872576903427655270e+04
2.255970068843577217e-02 3.832294702413521009e+04 2.605077494000550723e+04
2.538006637956496600e-02 3.459748322807742079e+04 2.326410160910756531e+04
2.855302817742248062e-02 3.110758490381195224e+04 2.067548204131027524e+04
3.212266689566698613e-02 2.810810286775376881e+04 1.846723907944000166e+04
3.613857423731676316e-02 2.576981973068406296e+04 1.677732809927342532e+04
4.065654175439026990e-02 2.393682114865565381e+04 1.547656622730936397e+04
4.573933593981235196e-02 2.224548790820713839e+04 1.429676701664213215e+04
5.145757021965836897e-02 2.012452510844651988e+04 1.278113062405563323e+04
5.789068596000986056e-02 1.743829033173220159e+04 1.083803095979534010e+04
6.512805611719643673e-02 1.462507993024422467e+04 8.802395076095741388e+03
7.327022686403775187e-02 1.252046963015262190e+04 7.316186139403020206e+03
8.243031444155220211e-02 1.128591522795189303e+04 6.518127387715445366e+03
9.273557664208829932e-02 1.013164123800368179e+04 5.779984140146171740e+03
1.043291807559273976e-01 8.633057393865612539e+03 4.757156171246198028e+03
1.173721925428021368e-01 7.322863391620325274e+03 3.886577755426259500e+03
1.320458138603942677e-01 6.576447003548580142e+03 3.434331748271198649e+03
1.485539000363775841e-01 5.697144779268932325e+03 2.885211845994848773e+03
1.671257919569474892e-01 4.946280733547519048e+03 2.429306315553752029e+03
1.880195022170215446e-01 4.359654143806421416e+03 2.096614094600254248e+03
2.115252995961465210e-01 3.807726728444853507e+03 1.783181421621180107e+03
2.379697416579423519e-01 3.353523843515297358e+03 1.537292786463995981e+03
2.677202114965329116e-01 2.956444373898936192e+03 1.327618530470946098e+03
3.011900216573443756e-01 2.620988530749326856e+03 1.154202125870107466e+03
3.388441561392025458e-01 2.334633412620704803e+03 1.010505217137959335e+03
